digraph Tree {
node [shape=box, style="filled, rounded", color="black", fontname="helvetica"] ;
edge [fontname="helvetica"] ;
0 [label="slfl_curl <= -0.007\ngini = 0.453\nsamples = 52\nvalue = [34, 18]", fillcolor="#f3c4a2"] ;
1 [label="slfl_span <= 0.799\ngini = 0.278\nsamples = 30\nvalue = [25, 5]", fillcolor="#ea9a61"] ;
0 -> 1 [labeldistance=2.5, labelangle=45, headlabel="True"] ;
2 [label="cfpr_rdi <= 1.313\ngini = 0.091\nsamples = 21\nvalue = [20, 1]", fillcolor="#e68743"] ;
1 -> 2 ;
3 [label="gini = 0.0\nsamples = 20\nvalue = [20, 0]", fillcolor="#e58139"] ;
2 -> 3 ;
4 [label="gini = 0.0\nsamples = 1\nvalue = [0, 1]", fillcolor="#399de5"] ;
2 -> 4 ;
5 [label="ufsl_branch_volume <= -0.239\ngini = 0.494\nsamples = 9\nvalue = [5, 4]", fillcolor="#fae6d7"] ;
1 -> 5 ;
6 [label="fatr_span <= 0.991\ngini = 0.278\nsamples = 6\nvalue = [5, 1]", fillcolor="#ea9a61"] ;
5 -> 6 ;
7 [label="gini = 0.0\nsamples = 5\nvalue = [5, 0]", fillcolor="#e58139"] ;
6 -> 7 ;
8 [label="gini = 0.0\nsamples = 1\nvalue = [0, 1]", fillcolor="#399de5"] ;
6 -> 8 ;
9 [label="gini = 0.0\nsamples = 3\nvalue = [0, 3]", fillcolor="#399de5"] ;
5 -> 9 ;
10 [label="cfpr_rdi <= 0.21\ngini = 0.483\nsamples = 22\nvalue = [9, 13]", fillcolor="#c2e1f7"] ;
0 -> 10 [labeldistance=2.5, labelangle=-45, headlabel="False"] ;
11 [label="cfpr_branch_volume <= 0.806\ngini = 0.444\nsamples = 12\nvalue = [8, 4]", fillcolor="#f2c09c"] ;
10 -> 11 ;
12 [label="gini = 0.0\nsamples = 8\nvalue = [8, 0]", fillcolor="#e58139"] ;
11 -> 12 ;
13 [label="gini = 0.0\nsamples = 4\nvalue = [0, 4]", fillcolor="#399de5"] ;
11 -> 13 ;
14 [label="cfpl_radius_of_end_region_2 <= 0.357\ngini = 0.18\nsamples = 10\nvalue = [1, 9]", fillcolor="#4fa8e8"] ;
10 -> 14 ;
15 [label="gini = 0.0\nsamples = 9\nvalue = [0, 9]", fillcolor="#399de5"] ;
14 -> 15 ;
16 [label="gini = 0.0\nsamples = 1\nvalue = [1, 0]", fillcolor="#e58139"] ;
14 -> 16 ;
}